{"learner":{"attributes":{},"feature_names":["id","hour","C1","banner_pos","site_id","site_domain","site_category","app_id","app_domain","app_category","device_id","device_ip","device_model","device_type","device_conn_type","C14","C15","C16","C17","C18","C19","C20","C21","device_hour"],"feature_types":["float","int","int","int","float","int","int","float","int","int","float","int","int","int","int","int","int","int","int","int","int","int","int","float"],"gradient_booster":{"model":{"cats":{"enc":[],"feature_segments":[],"sorted_idx":[]},"gbtree_model_param":{"num_parallel_tree":"1","num_trees":"1"},"iteration_indptr":[0,1],"tree_info":[0],"trees":[{"base_weights":[-5.877225E-3,4.3399087E-1,-5.2772295E-1,2.687658E-1,1.1918895E0,7.076904E-1,-6.833186E-1,7.6277316E-1,2.4601263E-1,1.3386235E0,5.384474E-1,1.0255479E0,-3.606245E-2,-4.9606562E-1,-9.6526086E-1,7.838771E-1,-7.14287E-2,2.842863E-1,-8.803265E-2,8.484726E-1,1.345882E0,-1.9698456E-1,6.575546E-1,1.2535251E0,7.277035E-1,-2.924375E-1,3.1951183E-1,-7.349054E-1,2.0501373E-2,-8.90441E-1,-1.2954053E0,1.1092333E0,7.3916554E-1,3.0685064E-1,-1.7126247E-1,8.0571324E-1,-1.9441217E-1,6.666536E-1,1.1020308E0,1.2738076E0,1.3944572E0,-5.511946E-1,1.2764478E-1,6.766594E-1,-6.470603E-2,1.2934102E0,4.3808118E-1,-2.6867068E-1,7.68241E-1,-3.1466997E-1,6.9230445E-2,1.7389803E-1,6.1816823E-1,-8.925164E-1,-2.566379E-1,7.678725E-1,-3.1655905E-1,-4.5315486E-1,-1.0130464E0,-1.4957715E0,-9.333452E-1,9.522564E-2,1.1855106E0,3.999856E-1,7.7721477E-1,2.505608E-1,4.4932798E-1,2.1645436E-2,-6.9277257E-1,-5.0000954E-1,8.4275484E-1,8.0438055E-2,-4.010385E-1,4.705745E-1,1.1304256E0,1.2558053E0,-4.577658E-7,1.3297485E0,2.1963842E-1,1.4012554E0,9.9998885E-1,-1.818323E-1,-8.9231855E-1,3.193133E-1,-7.692405E-1,7.192763E-2,7.3222727E-1,1.4123147E0,9.63492E-1,-1.4287116E-1,1.0188572E0,6.6665417E-1,-1.3750049E0,6.437772E-1,1.1887226E0,-1.7900333E-1,-4.784831E-1,7.671126E-2,6.849186E-1,9.6469456E-1,3.8847488E-1,-9.6369207E-1,-3.739168E-1,-4.5724156E-1,7.71434E-2,9.497951E-1,-1.4920697E0,-2.0933786E-1,-7.8648627E-1,-3.0520967E-1,-1.0774634E0,-1.0703317E0,-6.268794E-1,-1.4633944E0,-1.7297331E0,-1.2243612E0,1.4874539E-1,-4.000021E-2,6.6665584E-1,1.1999904E0,1.9999512E-2,5.084606E-1,-8.23537E-1,1.094584E0,7.0391417E-1,3.3870673E-1,-5.7262722E-3,4.187445E-1,7.0101756E-1,-2.5947428E-1,1.2363549E-1,-1.1707412E0,-4.6155268E-1,1.1110659E-2,-4.5454748E-2,5.365715E-1,9.905249E-1,4.1911986E-1,-2.5366253E-1,-3.579467E-1,-1.5294168E0,-1.4286213E-2,6.206766E-1,1.9999512E-2,6.4705506E-2,1.4285644E0,1.6666137E-2,1.3544706E0,1.0789367E0,5.7424384E-1,-2.6317197E-1,5.999882E-1,1.4034566E0,-1.1111489E-2,1.0769125E0,5.4544246E-1,-5.000127E-1,-4.577658E-7,-9.830609E-1,7.24625E-1,-2.2223604E-1,1.1110659E-2,-1.0476257E0,-6.000099E-1,1.788471E-1,6.108459E-1,9.1094685E-1,1.430529E0,2.2220916E-1,-1.3334419E-1,9.8695314E-1,6.6665584E-1,-4.0001303E-1,1.3333254E0,-1.3334419E-1,1.0769134E0,-1.17658466E-1,-8.4E-2,-9.091363E-3,2.3851731E-1,7.286997E-1,9.115528E-1,1.3584825E0,1.9716838E-1,-3.1916362E-1,-6.064652E-1,-1.071575E-1,1.6482016E-1,-9.677507E-1,-3.3333562E-2,8.2351726E-1,-5.71437E-1,1.1999905E0,5.517104E-1,-3.7038243E-1,2.698814E-1,-9.9495786E-1,-1.6864905E0,2.2786096E-2,7.825963E-1,-4.8886964E-1,2.632645E-1,-1.3231082E-1,6.6342473E-1,1.2700639E0,-1.5657196E0,-4.4445482E-1,1.2586029E-2,-4.206154E-1,-1.0183469E0,-2.7880263E-1,-2.0894194E-1,-8.618906E-1,-4.6155262E-1,-1.5569288E0,-1.1732417E0,-7.5632995E-1,-5.38592E-1,-9.550562E-2,-1.4674227E0,-2.3077358E-2,-1.8644081E0,-1.1020495E0,-9.408289E-2,-1.0637227E0,-8.86968E-1,1.0534244E0,5.5555176E-2,-4.577658E-7,2.9411195E-2,6.138567E-2,2.9761223E-2,-3.8461864E-2,-1.666711E-2,-5.555556E-2,2.1738457E-2,5.984203E-2,4.1155834E-2,3.0269582E-2,1.7959232E-2,5.4450817E-3,-7.646806E-3,1.4284968E-2,4.3362223E-2,2.0390093E-2,3.7476823E-2,-1.3793792E-2,-2.8814226E-2,-5.469498E-3,8.892956E-3,-1.8812582E-2,-6.423883E-2,5.8817617E-3,-8.543454E-3,-4.1026246E-2,2.1332622E-2,6.66663E-2,6.981094E-2,3.860401E-2,5.554802E-3,3.5554897E-2,-1.88489E-2,2.366342E-2,-9.992629E-3,-2.722078E-2,-4.7368895E-2,-9.2156865E-2,7.499971E-2,1.3042787E-2,1.1110659E-2,7.9999745E-2,6.794067E-2,2.7272124E-2,7.674389E-2,4.943339E-2,8.771221E-3,4.999946E-2,-3.953543E-2,1.8918252E-2,4.5454092E-2,7.6917666E-3,7.272691E-2,6.789022E-2,3.6169592E-2,6.666627E-2,-3.3333562E-2,5.2940715E-2,-3.6585923E-2,2.7272223E-2,-6.1905116E-2,-1.4286296E-2,-1.4286338E-2,6.444403E-2,-3.023316E-2,4.666618E-2,-6.250016E-2,-1.1111489E-2,1.6666137E-2,-6.666667E-2,2.6469914E-2,-1.1865101E-2,-2.5000557E-2,3.1943765E-2,-3.448929E-3,4.776328E-2,6.2161695E-2,7.638266E-2,2.7272124E-2,-3.3333562E-2,2.7272223E-2,-5E-2,3.5615787E-2,5.3923514E-2,1.1110659E-2,3.999954E-2,-2.7778372E-2,7.6917666E-3,3.333279E-2,7.419323E-2,-5E-2,2.7272223E-2,6.66663E-2,1.6666137E-2,-4.000021E-2,2.7272223E-2,2.4137234E-2,-1.8875258E-3,4.337838E-2,2.3248585E-2,5.8695167E-2,2.2033213E-2,1.4285154E-2,7.029665E-2,2.0324491E-2,-4.782648E-2,-1.8768234E-2,3.0434182E-2,-3.666731E-2,-8.108822E-3,1.6922375E-2,-3.333393E-2,1.4959894E-2,-7.018274E-3,1.9999512E-2,-6.8000205E-2,-1.666711E-2,4.9999457E-2,-5.555556E-2,1.1110659E-2,2.9031629E-2,7.499968E-2,1.0810094E-2,5.2173387E-2,1.5788866E-2,-6.666667E-2,4.8147585E-2,-7.4855E-7,1.5788749E-2,-5.0511777E-2,-9.1397956E-2,-6.000044E-2,9.055123E-3,-4.1237723E-2,5.8816774E-3,6.410214E-2,-1.7505512E-2,-3.4445114E-2,-1.4932769E-3,1.576013E-2,-3.8824163E-2,9.230019E-3,3.5589617E-2,1.0981715E-3,6.6289596E-2,-2.1053264E-2,-6.530651E-2,-9.012353E-2,1.9999512E-2,-5.000019E-2,2.967968E-2,-2.541867E-3,-1.822418E-2,-6.1333776E-2,-5.4123472E-2,-6.966017E-7,-2.7273415E-2,5.881614E-3,9.559975E-3,-1.4916589E-2,-1.2121912E-2,-4.9333896E-2,-3.217458E-2,4.117589E-2,-8.0830924E-2,-5.7220785E-7,2.075401E-2,-5.9834328E-2,-4.170417E-2,-2.4294496E-2,-2.4510518E-2,-5.4902446E-2,-7.8507744E-2,-7.001834E-2,-2.0000366E-2,-9.532168E-2,-6.666697E-2,9.090405E-3,-4.7813084E-2,-9.069774E-2,-6.2712245E-2,-2.3333993E-2,7.6146476E-2,-5.3846516E-2],"categories":[],"categories_nodes":[],"categories_segments":[],"categories_sizes":[],"default_left":[0,0,0,0,0,0,0,0,0,0,0,0,0,0,0,0,0,0,0,0,0,0,0,0,0,0,0,0,0,0,0,0,0,0,0,0,0,0,0,0,0,0,0,0,0,0,0,0,0,0,0,0,0,0,0,0,0,0,0,0,0,0,0,0,0,0,0,0,0,0,0,0,0,0,0,0,0,0,0,0,0,0,0,0,0,0,0,0,0,0,0,0,0,0,0,0,0,0,0,0,0,0,0,0,0,0,0,0,0,0,0,0,0,0,0,0,0,0,0,0,0,0,0,0,0,0,0,0,0,0,0,0,0,0,0,0,0,0,0,0,0,0,0,0,0,0,0,0,0,0,0,0,0,0,0,0,0,0,0,0,0,0,0,0,0,0,0,0,0,0,0,0,0,0,0,0,0,0,0,0,0,0,0,0,0,0,0,0,0,0,0,0,0,0,0,0,0,0,0,0,0,0,0,0,0,0,0,0,0,0,0,0,0,0,0,0,0,0,0,0,0,0,0,0,0,0,0,0,0,0,0,0,0,0,0,0,0,0,0,0,0,0,0,0,0,0,0,0,0,0,0,0,0,0,0,0,0,0,0,0,0,0,0,0,0,0,0,0,0,0,0,0,0,0,0,0,0,0,0,0,0,0,0,0,0,0,0,0,0,0,0,0,0,0,0,0,0,0,0,0,0,0,0,0,0,0,0,0,0,0,0,0,0,0,0,0,0,0,0,0,0,0,0,0,0,0,0,0,0,0,0,0,0,0,0,0,0,0,0,0,0,0,0,0,0,0,0,0,0,0,0,0,0,0,0,0,0,0,0,0,0,0,0,0,0,0,0,0,0,0,0,0,0,0,0,0,0,0,0,0,0,0,0,0,0,0,0,0,0,0,0,0,0,0,0,0,0,0,0,0,0,0,0,0,0,0,0,0,0,0,0,0,0],"id":0,"left_children":[1,3,5,7,9,11,13,15,17,19,21,23,25,27,29,31,-1,33,35,37,39,41,43,45,47,49,51,53,55,57,59,61,63,65,67,69,71,73,75,77,79,81,83,85,-1,87,89,91,93,95,-1,97,99,101,103,105,107,109,111,113,115,117,119,121,123,125,127,129,131,133,135,137,139,141,143,145,-1,147,149,151,153,155,157,159,161,163,165,167,169,171,173,175,177,179,181,183,185,187,189,191,193,195,197,199,201,203,205,207,209,211,213,215,217,219,221,223,225,-1,227,229,-1,231,233,235,237,239,241,243,245,247,249,251,253,-1,-1,255,257,259,261,263,265,-1,267,-1,-1,269,-1,271,273,275,277,279,281,-1,283,285,287,-1,289,291,293,-1,295,297,299,301,303,305,307,309,311,313,315,317,319,321,323,-1,-1,325,327,329,331,333,335,337,339,341,343,-1,345,347,349,351,353,355,357,359,361,363,365,367,369,371,373,375,377,379,381,383,385,387,389,391,393,395,397,399,-1,401,-1,403,405,-1,407,409,411,-1,-1,-1,-1,-1,-1,-1,-1,-1,-1,-1,-1,-1,-1,-1,-1,-1,-1,-1,-1,-1,-1,-1,-1,-1,-1,-1,-1,-1,-1,-1,-1,-1,-1,-1,-1,-1,-1,-1,-1,-1,-1,-1,-1,-1,-1,-1,-1,-1,-1,-1,-1,-1,-1,-1,-1,-1,-1,-1,-1,-1,-1,-1,-1,-1,-1,-1,-1,-1,-1,-1,-1,-1,-1,-1,-1,-1,-1,-1,-1,-1,-1,-1,-1,-1,-1,-1,-1,-1,-1,-1,-1,-1,-1,-1,-1,-1,-1,-1,-1,-1,-1,-1,-1,-1,-1,-1,-1,-1,-1,-1,-1,-1,-1,-1,-1,-1,-1,-1,-1,-1,-1,-1,-1,-1,-1,-1,-1,-1,-1,-1,-1,-1,-1,-1,-1,-1,-1,-1,-1,-1,-1,-1,-1,-1,-1,-1,-1,-1,-1,-1,-1,-1,-1,-1,-1,-1,-1,-1,-1,-1,-1,-1,-1,-1,-1,-1,-1,-1,-1,-1,-1,-1,-1,-1,-1,-1,-1,-1,-1,-1,-1,-1,-1,-1,-1],"loss_changes":[6.0109473E3,1.7790315E3,2.3027969E3,1.3095679E2,2.4310425E2,3.1687872E2,5.611465E2,2.4855408E1,1.4264514E2,6.2441406E0,4.112372E1,6.2846863E1,3.6762424E1,7.889431E2,1.0369116E2,6.584503E0,0E0,1.0293335E2,1.0925587E2,7.8666687E-1,5.3796387E0,7.659446E0,1.59019165E1,1.6687195E1,1.674614E1,9.16963E0,7.241991E0,3.2938818E2,5.0978857E2,1.8523096E2,5.533362E1,4.489128E0,5.503006E0,7.637164E1,4.7600075E1,6.334076E0,5.8313915E1,1.4458885E0,2.075942E0,4.89187E1,1.8449707E0,3.8381739E0,6.3052206E0,1.3380249E1,0E0,1.845929E1,9.002318E0,1.824914E1,1.9841309E1,5.07028E0,0E0,5.658822E0,4.0029106E0,1.2102344E2,7.270069E1,2.6001807E2,7.011098E1,6.9890015E1,5.9151367E1,1.2695312E0,8.874895E1,3.2190073E0,1.4842987E-1,6.7229533E0,8.627808E0,1.5448123E2,2.048584E1,9.959481E0,1.3577972E1,1.3838112E0,4.8638916E0,5.0035034E1,2.7945969E1,2.1071992E0,1.69837E-1,1.2370052E0,0E0,3.4510498E0,7.5557747E0,1.2524414E0,2.49572E0,4.090879E0,1.315752E0,6.690996E0,2.026829E0,2.6038423E0,7.3831787E0,7.6862793E0,3.6570053E0,3.1809378E0,4.9786205E0,3.2639499E0,2.605832E0,1.0357285E1,2.9375153E0,6.8379593E0,4.90114E0,9.155016E0,3.9677277E0,8.366356E0,4.508874E0,1.11769775E2,2.0753683E2,2.69693E1,1.5949865E1,5.2604004E1,2.9497528E0,5.3316055E1,3.017389E1,3.2831398E1,4.217473E1,7.5163086E1,3.882193E1,1.1276245E0,2.636917E0,2.1412323E1,5.7621674E1,0E0,1.1111178E0,1.894226E-1,0E0,5.363291E0,2.2872925E-1,4.472412E0,3.3889465E0,2.3905579E1,7.5162285E1,1.1471497E1,1.399939E1,4.335144E0,6.9720383E0,6.174858E0,9.016226E0,0E0,0E0,3.0218172E0,5.945183E0,1.9661812E1,2.0145992E1,1.6569206E1,2.1340408E0,0E0,4.196429E0,0E0,0E0,1.4539852E0,0E0,1.7786865E0,1.6104279E0,4.1118727E0,6.729387E0,5.496602E-1,7.8466797E-1,0E0,1.097681E0,4.1283092E0,3.3059587E0,0E0,2.2695103E0,1.0202335E1,6.5301933E0,0E0,5.991783E-1,3.866591E0,4.611449E0,7.200554E0,6.406456E0,4.7130127E0,2.3029976E0,2.7514687E0,2.6059723E0,4.445386E-2,1.0546882E0,6.454086E-2,2.7514687E0,7.948885E-1,2.359326E0,0E0,0E0,3.6954255E0,8.843903E0,4.0226707E0,2.296196E0,8.961778E0,5.130171E0,4.249861E0,7.206699E0,3.7738905E0,4.701859E0,0E0,3.8039055E0,1.7459921E0,2.612936E0,4.5590305E0,4.880996E0,1.3514778E1,5.6784424E1,4.1724243E0,4.1342167E1,5.578085E0,1.8126526E1,3.3055124E0,3.9492092E1,9.594543E0,2.6380524E1,3.3452606E-1,2.5110707E0,2.0499891E1,2.5908318E1,1.1574036E1,8.785645E0,1.8889067E1,6.756401E0,1.5727125E1,7.5506744E0,6.643579E1,1.1869568E1,8.407471E0,0E0,8.668213E-1,0E0,1.9606476E0,3.8799553E0,0E0,1.2817383E1,3.852562E0,3.439668E1,0E0,0E0,0E0,0E0,0E0,0E0,0E0,0E0,0E0,0E0,0E0,0E0,0E0,0E0,0E0,0E0,0E0,0E0,0E0,0E0,0E0,0E0,0E0,0E0,0E0,0E0,0E0,0E0,0E0,0E0,0E0,0E0,0E0,0E0,0E0,0E0,0E0,0E0,0E0,0E0,0E0,0E0,0E0,0E0,0E0,0E0,0E0,0E0,0E0,0E0,0E0,0E0,0E0,0E0,0E0,0E0,0E0,0E0,0E0,0E0,0E0,0E0,0E0,0E0,0E0,0E0,0E0,0E0,0E0,0E0,0E0,0E0,0E0,0E0,0E0,0E0,0E0,0E0,0E0,0E0,0E0,0E0,0E0,0E0,0E0,0E0,0E0,0E0,0E0,0E0,0E0,0E0,0E0,0E0,0E0,0E0,0E0,0E0,0E0,0E0,0E0,0E0,0E0,0E0,0E0,0E0,0E0,0E0,0E0,0E0,0E0,0E0,0E0,0E0,0E0,0E0,0E0,0E0,0E0,0E0,0E0,0E0,0E0,0E0,0E0,0E0,0E0,0E0,0E0,0E0,0E0,0E0,0E0,0E0,0E0,0E0,0E0,0E0,0E0,0E0,0E0,0E0,0E0,0E0,0E0,0E0,0E0,0E0,0E0,0E0,0E0,0E0,0E0,0E0,0E0,0E0,0E0,0E0,0E0,0E0,0E0,0E0,0E0,0E0,0E0,0E0,0E0,0E0,0E0,0E0,0E0,0E0,0E0,0E0,0E0,0E0,0E0,0E0,0E0,0E0,0E0,0E0,0E0,0E0,0E0,0E0],"parents":[2147483647,0,0,1,1,2,2,3,3,4,4,5,5,6,6,7,7,8,8,9,9,10,10,11,11,12,12,13,13,14,14,15,15,17,17,18,18,19,19,20,20,21,21,22,22,23,23,24,24,25,25,26,26,27,27,28,28,29,29,30,30,31,31,32,32,33,33,34,34,35,35,36,36,37,37,38,38,39,39,40,40,41,41,42,42,43,43,45,45,46,46,47,47,48,48,49,49,51,51,52,52,53,53,54,54,55,55,56,56,57,57,58,58,59,59,60,60,61,61,62,62,63,63,64,64,65,65,66,66,67,67,68,68,69,69,70,70,71,71,72,72,73,73,74,74,75,75,77,77,78,78,79,79,80,80,81,81,82,82,83,83,84,84,85,85,86,86,87,87,88,88,89,89,90,90,91,91,92,92,93,93,94,94,95,95,96,96,97,97,98,98,99,99,100,100,101,101,102,102,103,103,104,104,105,105,106,106,107,107,108,108,109,109,110,110,111,111,112,112,113,113,114,114,115,115,116,116,118,118,119,119,121,121,122,122,123,123,124,124,125,125,126,126,127,127,128,128,129,129,130,130,131,131,132,132,135,135,136,136,137,137,138,138,139,139,140,140,142,142,145,145,147,147,148,148,149,149,150,150,151,151,152,152,154,154,155,155,156,156,158,158,159,159,160,160,162,162,163,163,164,164,165,165,166,166,167,167,168,168,169,169,170,170,171,171,172,172,173,173,174,174,175,175,176,176,179,179,180,180,181,181,182,182,183,183,184,184,185,185,186,186,187,187,188,188,190,190,191,191,192,192,193,193,194,194,195,195,196,196,197,197,198,198,199,199,200,200,201,201,202,202,203,203,204,204,205,205,206,206,207,207,208,208,209,209,210,210,211,211,212,212,213,213,214,214,215,215,216,216,217,217,219,219,221,221,222,222,224,224,225,225,226,226],"right_children":[2,4,6,8,10,12,14,16,18,20,22,24,26,28,30,32,-1,34,36,38,40,42,44,46,48,50,52,54,56,58,60,62,64,66,68,70,72,74,76,78,80,82,84,86,-1,88,90,92,94,96,-1,98,100,102,104,106,108,110,112,114,116,118,120,122,124,126,128,130,132,134,136,138,140,142,144,146,-1,148,150,152,154,156,158,160,162,164,166,168,170,172,174,176,178,180,182,184,186,188,190,192,194,196,198,200,202,204,206,208,210,212,214,216,218,220,222,224,226,-1,228,230,-1,232,234,236,238,240,242,244,246,248,250,252,254,-1,-1,256,258,260,262,264,266,-1,268,-1,-1,270,-1,272,274,276,278,280,282,-1,284,286,288,-1,290,292,294,-1,296,298,300,302,304,306,308,310,312,314,316,318,320,322,324,-1,-1,326,328,330,332,334,336,338,340,342,344,-1,346,348,350,352,354,356,358,360,362,364,366,368,370,372,374,376,378,380,382,384,386,388,390,392,394,396,398,400,-1,402,-1,404,406,-1,408,410,412,-1,-1,-1,-1,-1,-1,-1,-1,-1,-1,-1,-1,-1,-1,-1,-1,-1,-1,-1,-1,-1,-1,-1,-1,-1,-1,-1,-1,-1,-1,-1,-1,-1,-1,-1,-1,-1,-1,-1,-1,-1,-1,-1,-1,-1,-1,-1,-1,-1,-1,-1,-1,-1,-1,-1,-1,-1,-1,-1,-1,-1,-1,-1,-1,-1,-1,-1,-1,-1,-1,-1,-1,-1,-1,-1,-1,-1,-1,-1,-1,-1,-1,-1,-1,-1,-1,-1,-1,-1,-1,-1,-1,-1,-1,-1,-1,-1,-1,-1,-1,-1,-1,-1,-1,-1,-1,-1,-1,-1,-1,-1,-1,-1,-1,-1,-1,-1,-1,-1,-1,-1,-1,-1,-1,-1,-1,-1,-1,-1,-1,-1,-1,-1,-1,-1,-1,-1,-1,-1,-1,-1,-1,-1,-1,-1,-1,-1,-1,-1,-1,-1,-1,-1,-1,-1,-1,-1,-1,-1,-1,-1,-1,-1,-1,-1,-1,-1,-1,-1,-1,-1,-1,-1,-1,-1,-1,-1,-1,-1,-1,-1,-1,-1,-1,-1,-1],"split_conditions":[1.8925E4,1.993E3,4.2E1,1.7E1,1.996E3,4.1E1,2.449E3,1.8E1,3E0,1.384E3,1.7894E4,3.2E2,2.25E3,1.67E2,8E0,1.9273074E18,-7.14287E-2,1E0,1.005E3,1.7747E4,1E0,1.411E3,2.083E3,1E0,1E0,8.1806E4,1.005E3,1E0,4.23E2,1E0,1E0,5.723E3,2.79E2,2.013E3,1.5701E4,3.9E1,4.1E1,2.105E3,1.6997675E19,1E0,1.814865E19,8.9491775E18,1E0,1.005E3,-6.470603E-2,2.0153E4,2.0077E4,1.6E1,1E1,1.959E3,6.9230445E-2,7.0423E4,1.445E3,1.6E1,2.312E3,1E0,5.1E1,2E0,7E1,1.7E1,7.2927E4,1.255E3,4.5E1,4.5E1,5.25E2,1.637E3,2E0,4.79E2,1E0,4.47E2,3.1409E4,1.873E3,1.835E3,3.8E2,7.55E2,2.157E3,-4.577658E-7,1.6433005E19,1.637E3,1.9E1,2.611E3,2.5317E4,1.05E2,1.120133E19,2.013E3,1.87E2,1.1531156E19,1E0,3.7159013E17,2.285E3,3E0,3E0,5.3564E4,1E0,1.345E3,5.524886E18,2.649E3,6.7975E4,7.5026104E17,1.6246675E18,2.476E3,3.2E2,1E0,4.3E1,1.671E3,1.005E3,1.7150799E19,1E0,2.096E3,1.01E3,1.4E1,1E0,2.1647E4,5E0,2E0,2.1647E4,2.556E3,-4.000021E-2,1.357E3,3.9E1,1.9999512E-2,1.761306E19,1.2246475E19,4.828801E18,1.6858E4,1E0,1.705E3,6.558E3,1E0,1E0,2.906E3,2.941E3,2E0,1.1110659E-2,-4.5454748E-2,1.6834439E19,4.9237E4,1.872E3,1.895E3,1E0,4.1E1,-1.4286213E-2,7.55E2,1.9999512E-2,6.4705506E-2,1.0406992E18,1.6666137E-2,8.2062E4,1.0489E4,4.5516E4,1.1088956E19,7.3989046E18,1.28E3,-1.1111489E-2,1.7653E4,8.248E3,6.9687E4,-4.577658E-7,1.5882947E19,3.419359E18,1.6191155E19,1.1110659E-2,1.007E3,1E0,1.671E3,1.805E3,3.38E2,2.8953E4,2.492E3,6.2749E4,6.91E2,7.003725E18,6.5453E4,2.7061E4,9.88E2,9.853717E18,1.227E3,-8.4E-2,-9.091363E-3,5.1071E4,3.4E1,7.65E2,4.335E3,7.1318E4,7.7611E4,1.2848729E19,2.71E3,4.8206E4,1E0,-3.3333562E-2,2.1611E4,5.02E2,5.25E2,2.071E3,5.7269E4,3.3E1,1E0,2E0,2E0,3.7225E4,1E0,1.87E2,1.72E3,7.6977E4,2E0,1E0,1.7379625E19,1.784E3,2.372E3,6.2E1,1.1036458E19,1.1733E4,1.042E3,7.3988E4,5E0,1E0,1E0,2.906E3,-9.550562E-2,1.227E3,-2.3077358E-2,7.3E1,1.5562833E19,-9.408289E-2,1.8E1,1.4E1,1.4E1,5.5555176E-2,-4.577658E-7,2.9411195E-2,6.138567E-2,2.9761223E-2,-3.8461864E-2,-1.666711E-2,-5.555556E-2,2.1738457E-2,5.984203E-2,4.1155834E-2,3.0269582E-2,1.7959232E-2,5.4450817E-3,-7.646806E-3,1.4284968E-2,4.3362223E-2,2.0390093E-2,3.7476823E-2,-1.3793792E-2,-2.8814226E-2,-5.469498E-3,8.892956E-3,-1.8812582E-2,-6.423883E-2,5.8817617E-3,-8.543454E-3,-4.1026246E-2,2.1332622E-2,6.66663E-2,6.981094E-2,3.860401E-2,5.554802E-3,3.5554897E-2,-1.88489E-2,2.366342E-2,-9.992629E-3,-2.722078E-2,-4.7368895E-2,-9.2156865E-2,7.499971E-2,1.3042787E-2,1.1110659E-2,7.9999745E-2,6.794067E-2,2.7272124E-2,7.674389E-2,4.943339E-2,8.771221E-3,4.999946E-2,-3.953543E-2,1.8918252E-2,4.5454092E-2,7.6917666E-3,7.272691E-2,6.789022E-2,3.6169592E-2,6.666627E-2,-3.3333562E-2,5.2940715E-2,-3.6585923E-2,2.7272223E-2,-6.1905116E-2,-1.4286296E-2,-1.4286338E-2,6.444403E-2,-3.023316E-2,4.666618E-2,-6.250016E-2,-1.1111489E-2,1.6666137E-2,-6.666667E-2,2.6469914E-2,-1.1865101E-2,-2.5000557E-2,3.1943765E-2,-3.448929E-3,4.776328E-2,6.2161695E-2,7.638266E-2,2.7272124E-2,-3.3333562E-2,2.7272223E-2,-5E-2,3.5615787E-2,5.3923514E-2,1.1110659E-2,3.999954E-2,-2.7778372E-2,7.6917666E-3,3.333279E-2,7.419323E-2,-5E-2,2.7272223E-2,6.66663E-2,1.6666137E-2,-4.000021E-2,2.7272223E-2,2.4137234E-2,-1.8875258E-3,4.337838E-2,2.3248585E-2,5.8695167E-2,2.2033213E-2,1.4285154E-2,7.029665E-2,2.0324491E-2,-4.782648E-2,-1.8768234E-2,3.0434182E-2,-3.666731E-2,-8.108822E-3,1.6922375E-2,-3.333393E-2,1.4959894E-2,-7.018274E-3,1.9999512E-2,-6.8000205E-2,-1.666711E-2,4.9999457E-2,-5.555556E-2,1.1110659E-2,2.9031629E-2,7.499968E-2,1.0810094E-2,5.2173387E-2,1.5788866E-2,-6.666667E-2,4.8147585E-2,-7.4855E-7,1.5788749E-2,-5.0511777E-2,-9.1397956E-2,-6.000044E-2,9.055123E-3,-4.1237723E-2,5.8816774E-3,6.410214E-2,-1.7505512E-2,-3.4445114E-2,-1.4932769E-3,1.576013E-2,-3.8824163E-2,9.230019E-3,3.5589617E-2,1.0981715E-3,6.6289596E-2,-2.1053264E-2,-6.530651E-2,-9.012353E-2,1.9999512E-2,-5.000019E-2,2.967968E-2,-2.541867E-3,-1.822418E-2,-6.1333776E-2,-5.4123472E-2,-6.966017E-7,-2.7273415E-2,5.881614E-3,9.559975E-3,-1.4916589E-2,-1.2121912E-2,-4.9333896E-2,-3.217458E-2,4.117589E-2,-8.0830924E-2,-5.7220785E-7,2.075401E-2,-5.9834328E-2,-4.170417E-2,-2.4294496E-2,-2.4510518E-2,-5.4902446E-2,-7.8507744E-2,-7.001834E-2,-2.0000366E-2,-9.532168E-2,-6.666697E-2,9.090405E-3,-4.7813084E-2,-9.069774E-2,-6.2712245E-2,-2.3333993E-2,7.6146476E-2,-5.3846516E-2],"split_indices":[15,18,22,22,18,20,18,9,19,11,15,16,18,20,9,0,0,9,2,15,3,12,18,4,7,11,2,3,20,7,7,11,12,12,15,20,20,12,0,4,0,0,9,2,0,15,15,9,9,12,0,11,12,9,18,9,22,14,8,9,11,18,8,8,12,12,14,18,10,12,11,18,18,11,11,12,0,0,12,12,11,11,12,0,12,12,0,9,0,18,19,19,11,10,12,0,12,11,0,0,18,16,7,22,12,2,0,4,12,2,8,3,15,14,14,15,12,0,12,20,0,0,0,0,15,3,12,15,3,10,12,12,14,0,0,0,11,18,18,4,8,0,11,0,0,0,0,11,11,11,0,0,12,0,15,11,11,0,0,0,0,0,2,10,12,11,12,11,12,11,12,0,11,11,12,0,12,0,0,11,8,12,11,11,11,0,12,11,7,0,15,12,12,12,11,8,8,14,14,11,4,12,12,11,14,19,0,18,18,8,0,11,12,11,9,8,4,12,0,12,0,12,0,0,9,8,8,0,0,0,0,0,0,0,0,0,0,0,0,0,0,0,0,0,0,0,0,0,0,0,0,0,0,0,0,0,0,0,0,0,0,0,0,0,0,0,0,0,0,0,0,0,0,0,0,0,0,0,0,0,0,0,0,0,0,0,0,0,0,0,0,0,0,0,0,0,0,0,0,0,0,0,0,0,0,0,0,0,0,0,0,0,0,0,0,0,0,0,0,0,0,0,0,0,0,0,0,0,0,0,0,0,0,0,0,0,0,0,0,0,0,0,0,0,0,0,0,0,0,0,0,0,0,0,0,0,0,0,0,0,0,0,0,0,0,0,0,0,0,0,0,0,0,0,0,0,0,0,0,0,0,0,0,0,0,0,0,0,0,0,0,0,0,0,0,0,0,0,0,0,0,0,0,0,0,0,0,0,0,0,0,0,0],"split_type":[0,0,0,0,0,0,0,0,0,0,0,0,0,0,0,0,0,0,0,0,0,0,0,0,0,0,0,0,0,0,0,0,0,0,0,0,0,0,0,0,0,0,0,0,0,0,0,0,0,0,0,0,0,0,0,0,0,0,0,0,0,0,0,0,0,0,0,0,0,0,0,0,0,0,0,0,0,0,0,0,0,0,0,0,0,0,0,0,0,0,0,0,0,0,0,0,0,0,0,0,0,0,0,0,0,0,0,0,0,0,0,0,0,0,0,0,0,0,0,0,0,0,0,0,0,0,0,0,0,0,0,0,0,0,0,0,0,0,0,0,0,0,0,0,0,0,0,0,0,0,0,0,0,0,0,0,0,0,0,0,0,0,0,0,0,0,0,0,0,0,0,0,0,0,0,0,0,0,0,0,0,0,0,0,0,0,0,0,0,0,0,0,0,0,0,0,0,0,0,0,0,0,0,0,0,0,0,0,0,0,0,0,0,0,0,0,0,0,0,0,0,0,0,0,0,0,0,0,0,0,0,0,0,0,0,0,0,0,0,0,0,0,0,0,0,0,0,0,0,0,0,0,0,0,0,0,0,0,0,0,0,0,0,0,0,0,0,0,0,0,0,0,0,0,0,0,0,0,0,0,0,0,0,0,0,0,0,0,0,0,0,0,0,0,0,0,0,0,0,0,0,0,0,0,0,0,0,0,0,0,0,0,0,0,0,0,0,0,0,0,0,0,0,0,0,0,0,0,0,0,0,0,0,0,0,0,0,0,0,0,0,0,0,0,0,0,0,0,0,0,0,0,0,0,0,0,0,0,0,0,0,0,0,0,0,0,0,0,0,0,0,0,0,0,0,0,0,0,0,0,0,0,0,0,0,0,0,0,0,0,0,0,0,0,0,0,0,0,0,0,0,0,0,0,0,0,0,0,0,0,0,0,0],"sum_hessian":[2.618455E4,1.4208368E4,1.1976183E4,1.1666399E4,2.541969E3,1.3392362E3,1.0636946E4,5.122446E2,1.1154154E4,2.0749736E3,4.6699548E2,9.379892E2,4.01247E2,6.3934634E3,4.2434834E3,5.079946E2,4.249996E0,1.0007663E4,1.1464917E3,3.199965E1,2.0429739E3,6.499956E1,4.019959E2,5.294934E2,4.0849576E2,2.3324847E2,1.679985E2,4.371729E3,2.0217344E3,3.4624854E3,7.809979E2,5.8499302E1,4.494953E2,9.535666E3,4.719967E2,1.212487E2,1.0252429E3,2.0749786E1,1.1249863E1,8.3348956E2,1.2094844E3,3.0749832E1,3.424972E1,3.987459E2,3.2499962E0,5.0424365E2,2.5249763E1,1.5749897E1,3.9274585E2,2.3099852E2,2.2499657E0,1.13999054E2,5.399946E1,3.287486E3,1.0842428E3,6.2799335E2,1.3937411E3,7.5924554E2,2.7032397E3,5.0074905E2,2.8024887E2,4.2499657E0,5.4249336E1,4.6499573E1,4.0299573E2,6.8371914E3,2.6984749E3,3.4524734E2,1.26749374E2,2.9999847E0,1.1824872E2,4.4024652E2,5.8499646E2,1.5999847E1,4.749939E0,9.749874E0,1.4999886E0,7.912399E2,4.224964E1,1.1864846E3,2.2999733E1,1.5499893E1,1.5249939E1,2.8749744E1,5.499977E0,3.3749733E1,3.649962E2,3.682452E2,1.3599846E2,1.2999908E1,1.2249855E1,8.749908E0,6.9999886E0,3.0499692E2,8.774893E1,1.27499115E2,1.03499405E2,9.674924E1,1.724982E1,2.0249767E1,3.374969E1,2.8899885E3,3.9749753E2,6.7699603E2,4.0724677E2,5.8174347E2,4.6249916E1,1.1359922E3,2.577488E2,6.1499603E2,1.442495E2,2.3524917E3,3.5074817E2,4.4624908E2,5.449995E1,2.2074936E2,5.949951E1,1.4999962E0,2.7499695E0,5.274935E1,1.4999847E0,4.3249584E1,3.2499886E0,7.299913E1,3.2999658E2,5.0872046E3,1.7499867E3,2.4084778E3,2.89997E2,9.149939E1,2.5374794E2,3.9999878E1,8.67495E1,1.2499886E0,1.7499962E0,3.999961E1,7.82491E1,2.1849799E2,2.2174852E2,5.6474646E2,2.024997E1,2.4999847E0,1.3499863E1,1.4999847E0,3.2499542E0,7.749893E0,1.9999809E0,7.1624084E2,7.4999115E1,2.424976E1,1.7999882E1,3.999958E0,1.1824846E3,1.2499924E0,2.174974E1,4.499954E0,1.0999939E1,1.4999886E0,1.374995E1,1.6249828E1,1.2499916E1,1.2499886E0,4.2499886E0,3.999981E0,2.9749752E1,2.199978E2,1.4499838E2,3.6249524E2,5.7499504E0,2.749981E0,1.3324847E2,2.7499695E0,1.0249939E1,9.499874E0,2.749981E0,5.4999313E0,3.249977E0,5.25E0,1.7499886E0,5.3499542E1,2.5149738E2,3.57496E1,5.199933E1,3.449971E1,9.2999405E1,7.6499596E1,2.6999805E1,8.999925E1,6.749977E0,1.2499962E0,1.5999825E1,2.4999886E0,1.7749779E1,2.7999725E1,5.7499657E0,7.124938E1,2.8187393E3,9.149989E1,3.0599765E2,1.6249825E1,6.607462E2,2.1549814E2,1.9174863E2,3.0874686E2,2.7299658E2,4.2749935E1,3.499981E0,5.544957E2,5.814965E2,1.7624934E2,8.1499466E1,5.254964E2,8.949962E1,6.3999626E1,8.024987E1,1.7697444E3,5.8274725E2,3.2949817E2,2.125E1,4.439991E2,2.2499886E0,4.3249985E1,1.1249966E1,4.124999E1,1.7949936E2,2.7749886E1,3.1749626E1,1.2499809E0,1.4999886E0,3.2499657E0,4.9499386E1,4.099959E1,2.2499924E0,1.9999886E0,1.25E0,1.0499901E1,6.2499233E1,1.4599843E2,1.8399817E2,4.670458E3,4.1674664E2,1.1629918E3,5.869949E2,5.549939E1,2.3529783E3,2.764971E2,1.3499912E1,2.8499847E1,6.2999546E1,2.294981E2,2.4249851E1,3.6749905E1,3.2499733E0,4.874966E1,3.7999832E1,3.649966E1,3.4999504E0,2.5499664E1,5.274944E1,1.0699914E2,1.1149884E2,1.8999883E2,3.1749699E1,3.067479E2,2.5799857E2,8.4999695E0,1.175E1,2.9999542E0,1.0499908E1,1.2499886E0,6.4999046E0,7.1174084E2,4.499954E0,9.749863E0,6.524925E1,1.3249889E1,1.099987E1,9.749958E0,8.249924E0,1.7499771E0,2.249981E0,5.4349286E2,6.389918E2,1.0749886E1,1.0999855E1,1.2499962E0,3.249958E0,9.249958E0,1.7499809E0,9.499977E0,4.2499733E0,5.999962E0,1.02498665E1,9.74995E0,2.7499657E0,2.9999962E0,1.2499924E0,1.9999809E0,2E0,1.5999844E1,1.3749908E1,4.9999733E0,2.1499783E2,6.249954E0,1.3874843E2,1.2849841E2,2.3399684E2,4.499954E0,1.2499962E0,1.7499809E0,1E0,3.549963E1,9.774885E1,1.2499886E0,1.4999809E0,7.999958E0,2.249981E0,2.7499695E0,6.7499046E0,1E0,1.7499809E0,3.4999504E0,1.9999809E0,1.4999962E0,1.7499809E0,2.7999733E1,2.549981E1,1.6324821E2,8.824917E1,2.199973E1,1.374987E1,2.499977E0,4.949935E1,2.9749725E1,4.7499847E0,8.824945E1,4.7499504E0,5.8999718E1,1.7499878E1,1.5249863E1,1.1749943E1,6.249945E1,2.7499805E1,1.4999847E0,5.2499924E0,1.9999886E0,1.3999836E1,1.25E0,1.2499886E0,6.7499313E0,1.0999847E1,1.7499851E1,1.0499874E1,3.7499657E0,2E0,1.9249779E1,5.1999603E1,3.2249714E1,2.7864895E3,6.874996E1,2.2749935E1,2.5849786E2,4.749979E1,7.499939E0,8.749886E0,3.9174753E2,2.6899866E2,3.2499756E1,1.8299838E2,6.274971E1,1.2899893E2,2.8699704E2,2.1749832E1,2.6449664E2,8.49995E0,2.3499943E1,1.9249992E1,1.4999847E0,1.9999962E0,5.3749466E1,5.0074628E2,5.449966E2,3.6499897E1,1.6574942E2,1.049992E1,4.8499733E1,3.2999733E1,9.57492E1,4.2974722E2,1.5499897E1,7.399972E1,5.649971E1,7.499916E0,7.724989E1,2.999977E0,2.5499763E1,1.7442446E3,4.50998E2,1.3174924E2,3.0499823E2,2.449992E1,1.6649973E2,2.7749936E2,1.4999924E0,4.1749992E1,9.499981E0,1.7499847E0,1.5899937E2,2.0499992E1,1.3749966E1,1.399992E1,2.6249641E1,5.4999847E0],"tree_param":{"num_deleted":"0","num_feature":"24","num_nodes":"413","size_leaf_vector":"1"}}]},"name":"gbtree"},"learner_model_param":{"base_score":"[5E-1]","boost_from_average":"1","num_class":"0","num_feature":"24","num_target":"1"},"objective":{"name":"binary:logistic","reg_loss_param":{"scale_pos_weight":"0.999984741"}}},"version":[3,1,2]}